{
  "feature_subset": [
    "question_alignment",
    "answer_topk_mass",
    "answer_mean_value",
    "pair_cosine_similarity"
  ],
  "means": [
    0.7755449096298598,
    0.39732927275817553,
    0.00023253456304404708,
    0.9645821019901288
  ],
  "stds": [
    0.0547087262227953,
    0.041024858032288475,
    6.691276771003287e-05,
    0.05484460577172282
  ],
  "weights": [
    -1.2531828641125686,
    -1.0132603570333008,
    -5.968601005877858,
    0.6419012957555023
  ],
  "intercept": -2.7893751253128714e-14,
  "metrics": {
    "tp": 98,
    "tn": 97,
    "fp": 3,
    "fn": 2,
    "accuracy": 0.975,
    "balanced_accuracy": 0.975,
    "precision": 0.9702970297029703,
    "recall": 0.98,
    "specificity": 0.97
  },
  "scores": [
    -2.8679913205534446,
    5.9071115713509865,
    -5.4144133702518795,
    2.9369992672591345,
    -4.299083203541175,
    2.2172564213398562,
    -4.393970782716816,
    6.221413015746998,
    -0.3064622215971413,
    5.246886840730034,
    -11.262249065287937,
    4.549848734221338,
    -1.9945505178446041,
    7.091920181009729,
    -6.268169230855482,
    3.321661244998974,
    -2.6959885935353474,
    7.40246973915013,
    -6.024687637460787,
    3.7317665651451635,
    -2.3410474831105748,
    5.489723779800999,
    -2.962788388514618,
    7.466815465862256,
    -7.818741585608635,
    4.499974208580582,
    -8.806176449745202,
    4.847576340302931,
    -4.558217650921771,
    1.7802508328105382,
    -0.8403063124439655,
    7.294376503320637,
    -3.741048613159897,
    5.347685140344363,
    -4.876472181030228,
    4.758697563383348,
    -4.686391455156209,
    3.598869941392872,
    -2.73592610909562,
    3.3132128637469838,
    -4.089909692147617,
    4.163379607121023,
    -6.078269383978135,
    6.3075543976588735,
    -8.77376349183657,
    1.1295308251644103,
    -4.7340374247289,
    6.079015349895796,
    -2.965253155932864,
    5.915765250346179,
    9.469739319940127,
    8.020321557843651,
    -7.851441623493737,
    8.19787672522696,
    -7.642494527303529,
    2.128156506549661,
    -6.027538263352722,
    3.7421327046580712,
    -6.68775617125986,
    5.456030250376315,
    -3.289358600861639,
    9.202943199564233,
    -6.360962377313726,
    5.918841675367953,
    -4.172655986083158,
    7.245450963178873,
    -5.904092269698318,
    6.885260713505529,
    -5.962372047052099,
    8.184795123069511,
    -4.7342791952743815,
    4.706084172101391,
    -6.114974352096133,
    8.502893120074006,
    -2.5361497183061776,
    3.794063431405109,
    -10.37345591955649,
    3.3191671627988395,
    -5.758925316336762,
    2.980593132097238,
    -8.500886830311444,
    0.42703017881621497,
    -7.138206159609661,
    3.4591799751351533,
    -3.09489033509393,
    7.242746533479365,
    -3.1031822470257002,
    6.149818072725739,
    -7.299986593672459,
    1.38083227583755,
    -4.431764339515507,
    6.533515929016019,
    -10.512772550971796,
    2.6679892664702813,
    -10.487583252674344,
    9.749961297958269,
    -8.181963760111657,
    8.105938491067285,
    -7.60570446114093,
    5.644398112292807,
    -2.9024602470807297,
    7.04246581566574,
    -5.867944733074592,
    3.7683764606719903,
    -2.2607162963544654,
    6.636148568037682,
    0.7316086467407256,
    6.598518812830382,
    -8.086331409664234,
    6.64590823701129,
    -2.980291268956273,
    7.4424551317457235,
    -3.3026422090292535,
    3.6999423046814557,
    -17.942715672318077,
    5.500662793494344,
    -3.0872825277084455,
    7.662179033897487,
    -1.1135336699773883,
    10.99186079943108,
    -7.911866081671628,
    2.4210049962248887,
    -8.162145634145416,
    0.7381550363162259,
    -1.571272292476898,
    7.352855121467642,
    -19.050273428443855,
    -4.0297411797852165,
    -2.244968411498715,
    9.141788721894164,
    -2.9956386493674274,
    5.413031233058794,
    -8.567260209529916,
    1.1304573614365738,
    -7.074279571931,
    5.913374996489839,
    -5.063644876078411,
    7.6710811302995205,
    -2.7691142938318736,
    2.562411382309506,
    -4.70395419149794,
    2.242024800383057,
    -4.1312227908497325,
    5.399174074096838,
    -4.234406707887445,
    5.433224280856547,
    -5.924930635527376,
    6.612946079458211,
    -5.967554538949234,
    3.727469682193272,
    -0.4791299095974839,
    7.821254685715489,
    -2.461953266886719,
    7.667759682300171,
    -5.353408449956243,
    1.0291072499673541,
    1.1183186194459298,
    4.803678249833939,
    -1.093631484922319,
    7.302703374609805,
    -8.59840263578694,
    5.467052428411594,
    -6.174054348147878,
    3.6090349864499514,
    -4.354224190716102,
    6.6132496047602825,
    -0.015446393483521864,
    6.4698917627319075,
    -7.444600423161871,
    3.2494082154653983,
    -5.27687154181032,
    7.943081431810074,
    -5.003463621954683,
    6.896084835129211,
    -3.471591823385021,
    6.361742954741708,
    -2.761421533906927,
    7.461607519312315,
    -1.7193348079526247,
    7.100870290905876,
    -7.581553106714434,
    1.4004726904345848,
    -1.2980886237403346,
    11.150075547288818,
    -6.832454934788838,
    6.290959198582068,
    -4.655889197649759,
    2.0272189710801363,
    -8.666054856141658,
    1.5059772922151096,
    -7.86779072185515,
    2.1655462664688643,
    -11.257170058441448,
    -4.228341163544371,
    -0.9637739591420569,
    6.600096566440328,
    -6.4390579867472155,
    3.04598613219325,
    -5.954959123672887,
    3.8923463126864353
  ],
  "predictions": [
    0,
    1,
    0,
    1,
    0,
    1,
    0,
    1,
    0,
    1,
    0,
    1,
    0,
    1,
    0,
    1,
    0,
    1,
    0,
    1,
    0,
    1,
    0,
    1,
    0,
    1,
    0,
    1,
    0,
    1,
    0,
    1,
    0,
    1,
    0,
    1,
    0,
    1,
    0,
    1,
    0,
    1,
    0,
    1,
    0,
    1,
    0,
    1,
    0,
    1,
    1,
    1,
    0,
    1,
    0,
    1,
    0,
    1,
    0,
    1,
    0,
    1,
    0,
    1,
    0,
    1,
    0,
    1,
    0,
    1,
    0,
    1,
    0,
    1,
    0,
    1,
    0,
    1,
    0,
    1,
    0,
    1,
    0,
    1,
    0,
    1,
    0,
    1,
    0,
    1,
    0,
    1,
    0,
    1,
    0,
    1,
    0,
    1,
    0,
    1,
    0,
    1,
    0,
    1,
    0,
    1,
    1,
    1,
    0,
    1,
    0,
    1,
    0,
    1,
    0,
    1,
    0,
    1,
    0,
    1,
    0,
    1,
    0,
    1,
    0,
    1,
    0,
    0,
    0,
    1,
    0,
    1,
    0,
    1,
    0,
    1,
    0,
    1,
    0,
    1,
    0,
    1,
    0,
    1,
    0,
    1,
    0,
    1,
    0,
    1,
    0,
    1,
    0,
    1,
    0,
    1,
    1,
    1,
    0,
    1,
    0,
    1,
    0,
    1,
    0,
    1,
    0,
    1,
    0,
    1,
    0,
    1,
    0,
    1,
    0,
    1,
    0,
    1,
    0,
    1,
    0,
    1,
    0,
    1,
    0,
    1,
    0,
    1,
    0,
    1,
    0,
    1,
    0,
    0,
    0,
    1,
    0,
    1,
    0,
    1
  ]
}